Language model created by QuickLM on Thu Nov 11 03:18:07 EST 2021
Copyright (c) 1996-2010 Carnegie Mellon University and Alexander I. Rudnicky

The model is in standard ARPA format, designed by Doug Paul while he was at MITRE.

The code that was used to produce this language model is available in Open Source.
Please visit http://www.speech.cs.cmu.edu/tools/ for more information

The (fixed) discount mass is 0.5. The backoffs are computed using the ratio method.
This model based on a corpus of 4 sentences and 6 words

\data\
ngram 1=6
ngram 2=8
ngram 3=4

\1-grams:
-0.7782 </s> -0.3010
-0.7782 <s> -0.2218
-1.3802 再见 -0.2218
-1.3802 变身 -0.2218
-1.3802 测试 -0.2218
-1.3802 迪迦 -0.2218

\2-grams:
-0.9031 <s> 再见 0.0000
-0.9031 <s> 变身 0.0000
-0.9031 <s> 测试 0.0000
-0.9031 <s> 迪迦 0.0000
-0.3010 再见 </s> -0.3010
-0.3010 变身 </s> -0.3010
-0.3010 测试 </s> -0.3010
-0.3010 迪迦 </s> -0.3010

\3-grams:
-0.3010 <s> 再见 </s>
-0.3010 <s> 变身 </s>
-0.3010 <s> 测试 </s>
-0.3010 <s> 迪迦 </s>

\end\
